2 5 15 3 
2.547047826266956250 3.955073616768905342 4.879399423674022351 -2.425574116929396062 6.002639845319339251 -2.062489043725892035 3.800406832934433599 4.657229373347771428 6.462258356828863626 -1.770946419785670578 -1.302841175748126190 1.778458505795863287 2.289670875604228772 1.913515698579420166 1.561301779197476147 0.139018516811494575 1.082348380507093699 -1.569741367769176499 1.364885991633237872 2.317678209757267460 0.584780877806555299 2.177874852504039893 2.476505268202101373 -1.191653496245310251 -0.696924451317213589 1.557615152073848597 1.921777899978379001 1.781034625858373355 -2.889203533875627450 -2.176299831662517281 0.510397606385721847 -1.887806710166984869 2.201648814655705610 1.907249865144327039 1.431717930782090642 -0.193094240734204559 2.246905841842174567 1.417841152837520768 2.000703825403381764 1.079447986480563948 2.657416048733170388 2.333658117918363750 1.717614502539773991 -4.899725960908542177 -3.158840674040181096 0.775877196740574537 -3.222037810260776958 1.485599955759851820 2.223267358423745232 2.430665686724414076 -0.838255018643520033 2.180372526373752340 2.726202660873526806 4.170030625268288382 1.740369344520972028 -0.807726027753710496 2.143390996751191935 2.327182918249000476 2.936470686127074625 3.519758467489636722 0.298458951561889396 1.595584945439857405 -0.746256450626572643 1.570688248579154900 2.531542147867276604 -0.585040348094621132 2.141406528575148460 2.467557933995887964 -4.381364798159497198 -0.306041934552891415 -0.665006286697272908 1.999285780050014560 1.824863060139402471 2.186340288740276527 2.757317147532084345 0.357192582964613092 1.004394817098540171 -0.011757568962451146 1.573882469429163544 2.418712198931467938 -0.790000359526715767 1.578960547142384652 1.939631126218280821 -3.175015259397020451 -0.078612027058650405 5.312845314427922183 6.311337724229355572 1.827880110308098383 -2.925529343150380157 -1.674040276193477839 0.218495516266383222 -2.627983951481335900 -1.415356657618139558 -0.916639429693616670 -0.199185608283949739 -8.269891220801412146 -6.062061386321878409 5.488966347432336690 -0.317650845455472786 -5.609844646443391980 4.784485616217727610 4.422557281978604315 -0.921271666625184116 -6.394253602943472004 -7.741756124687897866 -3.208127751399923344 5.822751428029011578 6.312493583910747219 1.105137364350983864 -1.233748941647810904 -1.261514584459515254 0.643618166300473304 -3.208597898136470672 -2.996966783026492109 -0.787166982516158353 -6.391691238728302693 -5.955810523303551207 1.116944492074515294 -2.725845353395575987 -1.916118017117620642 -0.379308116163952880 -3.459284792792799657 -2.651278501060484682 -0.062159868651574836 -10.153805239649566161 -1.289994005316635661 7.203958926250116690 4.625656184507791480 5.579557723392139401 0.255637519209496844 